<?xml version="1.0"?>
<opencv_storage>
<stage12>
  <maxWeakCount>6</maxWeakCount>
  <stageThreshold>2.0610144734382629e-01</stageThreshold>
  <weakClassifiers>
    <_>
      <internalNodes>
        0 -1 1654 1073840136 32769 1073741824 26312705 -2113927034
        134283264 1073758336 -1714651007</internalNodes>
      <leafValues>
        -7.1296298503875732e-01 7.5655430555343628e-01</leafValues></_>
    <_>
      <internalNodes>
        0 -1 3719 91205611 -1946304577 2147479535 1169866747 -545956505
        1610448767 1039540094 1167345501</internalNodes>
      <leafValues>
        -6.0465383529663086e-01 8.4044003486633301e-01</leafValues></_>
    <_>
      <internalNodes>
        0 -1 3507 662075904 1945108277 1877358288 -245104645 -100385
        1711276031 2004858279 -243762318</internalNodes>
      <leafValues>
        -6.1689168214797974e-01 8.0680811405181885e-01</leafValues></_>
    <_>
      <internalNodes>
        0 -1 2049 1371635730 1342178316 -2147483646 419430465 268435584
        -2046279680 67111168 -2004844480</internalNodes>
      <leafValues>
        -6.8311494588851929e-01 7.6904731988906860e-01</leafValues></_>
    <_>
      <internalNodes>
        0 -1 3176 17895640 1342506256 268484742 1627656576 8 -2147450880
        65664 -2104909632</internalNodes>
      <leafValues>
        -7.1434110403060913e-01 7.4575227499008179e-01</leafValues></_>
    <_>
      <internalNodes>
        0 -1 2871 16842912 318767105 268435456 -2079719360 129
        1073741824 16394 -998211582</internalNodes>
      <leafValues>
        -7.8288996219635010e-01 6.9314140081405640e-01</leafValues></_></weakClassifiers></stage12>
</opencv_storage>
