<?xml version="1.0"?>
<opencv_storage>
<stage8>
  <maxWeakCount>6</maxWeakCount>
  <stageThreshold>4.7905057668685913e-01</stageThreshold>
  <weakClassifiers>
    <_>
      <internalNodes>
        0 -1 3147 -247394009 -1002348288 285737985 -468606975
        -1073708914 -241696760 -1073708640 -392503295</internalNodes>
      <leafValues>
        -9.3103450536727905e-01 7.1527779102325439e-01</leafValues></_>
    <_>
      <internalNodes>
        0 -1 2511 -1727751421 -721124863 402726928 -2012538877
        -804979936 -810770430 -276069672 2136841418</internalNodes>
      <leafValues>
        -9.1083592176437378e-01 5.7996600866317749e-01</leafValues></_>
    <_>
      <internalNodes>
        0 -1 1677 16814425 134217728 134226257 285212800 -1879013238
        2176 -1744248158 1888486024</internalNodes>
      <leafValues>
        -8.5968381166458130e-01 5.4275804758071899e-01</leafValues></_>
    <_>
      <internalNodes>
        0 -1 3337 -582888929 -1257914355 -2130669291 -1524833725
        1073742093 65536 134350850 -456269680</internalNodes>
      <leafValues>
        -7.4602371454238892e-01 5.9890121221542358e-01</leafValues></_>
    <_>
      <internalNodes>
        0 -1 2283 -1538792485 -2126512127 1074790544 -117374976
        -1459580838 -2142666496 -1862227454 1875837064</internalNodes>
      <leafValues>
        -9.4571179151535034e-01 4.6306860446929932e-01</leafValues></_>
    <_>
      <internalNodes>
        0 -1 2560 1107415292 1485832800 1090816073 37945408 -2146926464
        -1264549888 536887298 1090650240</internalNodes>
      <leafValues>
        -7.7460879087448120e-01 6.8781149387359619e-01</leafValues></_></weakClassifiers></stage8>
</opencv_storage>
