<?xml version="1.0"?>
<opencv_storage>
<stage11>
  <maxWeakCount>6</maxWeakCount>
  <stageThreshold>-1.9281998276710510e-01</stageThreshold>
  <weakClassifiers>
    <_>
      <internalNodes>
        0 -1 2946 1482137993 -234667775 268501314 -1743253498
        -1308491390 805437440 -1589435487 1890246891</internalNodes>
      <leafValues>
        -8.3240222930908203e-01 6.9877409934997559e-01</leafValues></_>
    <_>
      <internalNodes>
        0 -1 3760 671082479 -33619989 -1073741826 -1377107969 637517701
        99663871 1610601982 214958079</internalNodes>
      <leafValues>
        -5.4061418771743774e-01 7.8101867437362671e-01</leafValues></_>
    <_>
      <internalNodes>
        0 -1 2988 26316959 -1022151485 1048836 -249495536 16842753
        -1342164984 -1879031768 -1576893821</internalNodes>
      <leafValues>
        -7.2276443243026733e-01 6.2400901317596436e-01</leafValues></_>
    <_>
      <internalNodes>
        0 -1 1087 -1876361075 293896212 65813 361299968 -2138531686
        1620639938 -2147450684 -402554656</internalNodes>
      <leafValues>
        -7.1463900804519653e-01 6.4427196979522705e-01</leafValues></_>
    <_>
      <internalNodes>
        0 -1 3347 1074332373 1364443143 268599299 1082728448 16780459
        -2013265912 151103643 965494795</internalNodes>
      <leafValues>
        -6.4898562431335449e-01 7.0235842466354370e-01</leafValues></_>
    <_>
      <internalNodes>
        0 -1 2464 -2147007733 -2146435071 1 -2097151997 -1050107389
        67109380 -1610585975 2063798703</internalNodes>
      <leafValues>
        -8.0757755041122437e-01 5.8604162931442261e-01</leafValues></_></weakClassifiers></stage11>
</opencv_storage>
