<?xml version="1.0"?>
<opencv_storage>
<stage9>
  <maxWeakCount>7</maxWeakCount>
  <stageThreshold>7.6619297266006470e-02</stageThreshold>
  <weakClassifiers>
    <_>
      <internalNodes>
        0 -1 2523 -2087516335 -1785691637 419479554 17039500 -1030524780
        -1367172351 -1157580734 1604944000</internalNodes>
      <leafValues>
        -9.6341460943222046e-01 6.9624572992324829e-01</leafValues></_>
    <_>
      <internalNodes>
        0 -1 3168 285332949 -2016094843 1073741827 -243199919 570609935
        67108864 -2004842488 -1937014622</internalNodes>
      <leafValues>
        -8.7681406736373901e-01 5.7782775163650513e-01</leafValues></_>
    <_>
      <internalNodes>
        0 -1 1742 1887637711 1898053633 16860314 822689793 -997193724
        1124073608 687989146 -615806837</internalNodes>
      <leafValues>
        -6.9329005479812622e-01 6.6243088245391846e-01</leafValues></_>
    <_>
      <internalNodes>
        0 -1 2731 36388879 -1878786048 285278211 0 -2147344151
        -533725184 -1466930680 916173577</internalNodes>
      <leafValues>
        -8.7154817581176758e-01 5.4807025194168091e-01</leafValues></_>
    <_>
      <internalNodes>
        0 -1 3347 1711104499 -1712720394 1593642284 294987351 -1
        -33554435 -32777 -570445844</internalNodes>
      <leafValues>
        -5.8010065555572510e-01 7.8935033082962036e-01</leafValues></_>
    <_>
      <internalNodes>
        0 -1 2022 -1068394787 -520019967 134250501 -721416176
        -1425897202 159387392 537139340 2047393800</internalNodes>
      <leafValues>
        -8.1239336729049683e-01 5.6612741947174072e-01</leafValues></_>
    <_>
      <internalNodes>
        0 -1 1343 272711711 1501626369 65565 -1878720239 -1735884221
        -2004877184 -936828249 -1161148011</internalNodes>
      <leafValues>
        -8.9617162942886353e-01 4.3918046355247498e-01</leafValues></_></weakClassifiers></stage9>
</opencv_storage>
